0.656883
0.468496
0.244225
0.570913
0.471283
0.652753
1.005157
-0.161535
-0.224808
0.227824
-0.216201
-0.171688
0.467176
-0.087613
-1.162074
0.243431
0.460855
-0.277290
0.968932
-0.744696
-0.440803
-1.159149
-0.505618
-1.376690
-0.138284
-0.884975
-1.392573
-0.000765
-0.995339
-0.561763
1.012433
-0.636683
-0.644374
-0.558994
-1.364264
-0.619216
-0.126125
1.178460
0.128882
0.195494
-0.241284
-0.317172
-0.239185
-0.901286
0.601429
-0.898817
-0.769304
-0.802314
-1.930356
0.842077
-0.779744
0.069126
-0.642033
-0.339475
-1.140361
-0.496593
-0.285741
0.940436
-0.487971
-0.953748
-0.370276
1.293534
-0.631394
1.606084
-0.585573
-0.148750
-1.187721
-0.127782
0.621088
0.506039
2.109684
-0.942912
-0.865134
-0.733081
-0.366540
0.042617
0.646858
0.623215
0.994444
0.731955
0.093245
0.810155
0.955390
1.055041
-0.304950
0.847748
-0.577239
-0.730669
-0.563559
1.714164
0.111846
-0.438562
-1.013274
-0.284288
-0.238509
-0.412489
-0.505354
-1.670530
0.010275
-0.043352
-0.189349
0.068241
-0.103050
0.169929
-0.015476
-0.020811
0.228558
0.093059
-0.157891
0.054432
-0.134387
0.059387
0.539220
0.258527
0.060829
-0.310589
0.115705
0.055998
-0.351596
0.269023
-0.081475
0.069920
-0.081467
0.088372
-0.160305
0.370044
0.164892
-0.195764
-0.079623
0.108441
-0.290708
-0.154272
0.305704
0.098286
0.176144
-0.206131
-0.079415
-0.195662
-0.186495
0.267115
0.026447
-0.118397
-0.351719
-0.188586
0.041358
0.063973
-0.322197
0.637378
-0.718843
0.151111
0.559275
0.064243
-0.359982
0.853342
-0.873957
0.793929
-0.152603
0.107038
0.249147
-0.648809
-1.117456
0.658764
0.082243
-0.252410
0.293755
0.001085
-0.764136
-0.802587
1.293152
0.169023
-0.259566
0.021318
0.106274
-0.729912
0.474471
-0.669188
-0.543705
-1.078015
-0.516286
-0.597379
-0.648524
0.598686
0.140680
0.788283
-0.538998
0.274475
-0.120129
-0.056974
0.363376
-0.595251
0.401505
0.119264
0.269843
0.793490
-0.339665
-2.606246
0.799181
1.262812
0.722321
0.224570
0.791477
1.262002
0.805364
1.045007
-0.580183
-0.792275
-0.775111
0.181910
0.577345
0.834930
1.056379
-0.558779
0.396954
-0.992962
0.704138
0.566498
0.224020
-0.010313
1.034359
0.877582
0.298338
0.906166
0.986809
-0.108730
-0.390048
0.189300
0.648093
-0.972439
-0.274320
0.065621
0.322257
0.686089
-0.541328
0.537024
-1.007816
0.686967
-0.544259
0.153511
-0.004371
-0.374379
0.064501
-0.575316
-0.443046
-0.366409
1.508411
-0.426061
0.001485
0.231078
0.186485
-0.113252
0.017954
-1.028437
-0.329376
0.919951
-0.128518
-0.336493
-0.115961
0.197027
0.984558
-0.585385
0.182318
0.036225
-0.468763
0.185988
-0.386242
2.182760
-1.702904
0.082213
-0.311036
-0.491896
0.174760
-0.796861
1.625845
-0.911469
-0.013672
-0.194790
-0.956306
-0.565856
0.012255
0.250647
0.119616
0.833565
-0.699306
-0.092903
0.204886
0.668989
0.420154
-0.124991
0.141980
0.328039
-0.011775
0.509344
-0.463484
-1.360554
-0.048388
0.440031
-0.754629
-0.694396
-0.831291
-0.358543
-0.369334
0.264020
-0.988353
0.605898
0.164693
-0.216002
-0.506964
0.168148
0.297595
0.465211
-0.004210
0.385972
0.080271
0.325581
-1.150539
-0.385609
-0.330613
-0.005584
0.069069
-0.288333
0.651618
-0.146445
-0.174638
0.238019
0.395884
1.184935
0.373887
0.498990
-0.082607
-0.316260
-0.654225
0.237661
0.374285
0.171119
-0.186937
0.344465
-0.532576
0.157347
-1.067018
-0.709692
-0.909572
0.528989
-1.518591
-1.020225
0.643200
-0.188700
0.298952
-0.120156
0.198314
-0.894656
-0.002536
-0.159705
0.120717
-0.313084
-0.023927
-0.756499
1.124618
0.848610
0.131507
-0.070270
-0.122855
0.113003
-0.286920
0.033435
0.105735
0.546185
0.590733
0.359716
0.545727
0.359094
-0.033123
0.393373
-0.347592
-0.983880
-0.074800
-0.289629
0.276090
1.138871
0.438004
-0.237662
-0.608315
-0.338587
-0.043165
-0.366460
1.177779
-0.988848
0.481847
-0.209341
-0.041309
-0.034603
0.359645
-2.939750
-0.275271
-0.489519
1.126433
0.267175
2.294408
1.562479
1.370039
2.578114
-0.559316
-0.455068
0.081376
-0.698067
1.707223
-0.552189
-0.615502
2.415385
6.649905
-0.619299
-0.250059
-1.634127
2.155233
-1.036597
0.183083
-4.078858
-2.584875
-0.323665
1.088671
1.489165
1.228427
-2.583502
0.275842
2.205521
-1.224743
-0.449380
0.100470
2.983507
2.173443
-2.062982
-0.891462
-1.271475
-2.934917
5.345468
-0.283603
-3.468514
-1.588271
-2.763595
2.723134
-2.563224
-0.264693
-2.648004
-0.688035
-1.294356
0.277114
3.114212
0.328144
1.533108
-3.702195
-4.112520
-0.606052
-3.984272
2.011295
-0.878953
-3.352757
-4.494149
1.147311
-4.098594
0.517864
2.200032
-7.069355
-0.819276
2.503206
-0.682168
0.326400
5.778436
0.428824
2.448373
-2.406366
3.601795
-3.452948
-1.834704
0.000000
0.000000
0.000000
0.000000
0.000000
0.000000
0.000000
0.000000
0.000000
0.000000
0.000000
0.000000
0.000000
0.000000
0.000000
0.000000
0.000000
0.000000
0.000000
0.000000
0.000000
0.000000
0.000000
0.000000
0.000000
0.000000
0.000000
0.000000
0.000000
0.000000
0.000000
0.000000
0.000000
0.000000
0.000000
0.000000
0.000000
0.000000
0.000000
0.000000
0.000000
0.000000
0.000000
0.000000
0.000000
0.000000
0.000000
0.000000
0.000000
2.132916
-1.789608
-2.198845
-0.621997
-2.710644
-0.916152
3.118531
-1.806478
-7.037867
-3.577176
-4.322791
-4.672091
-4.591955
-2.577302
-4.196968
1.197401
-0.651234
-5.230011
